{"layer":[36,16,36],"params":[[{"weights":[-3.9105789443943024,-2.992871065395951,2.288021882421009,-0.7487577669479828,-0.2081856877512081,2.5954235670872667,-3.428538153219314,-3.2118675500323355,2.2856838655404297,1.206700315172913,2.78699623866057,-0.08790406942938854,1.8349563410225005,-5.919223368200608,3.3432317052223115,-0.17942348300830577,-3.0724366275325075,-2.432526493946344,6.305144266253962,3.303466784544377,-3.356395012208494,-0.8281103219786532,1.6088003497067196,5.517406658337794,3.6351712885130776,7.015809240971103,-0.9753152141857726,3.0935729521360553,3.8776125562493835,0.8441614778944633,0.9425615341450033,-3.3088565972866135,0.5408967172842313,-1.6067231251680532,-1.6597658573909284,4.058155195078472],"bias":0.2758154997191126},{"weights":[-2.5307300552189926,-0.1311738977687461,-1.8503921208380418,5.42608189507656,-2.335007058556507,-6.172996272866696,2.4420140753575703,-0.9787529581189501,3.0899774740072545,3.016179496426299,-0.8314979123399037,-3.824160487974974,-0.25886525278676853,5.174975948249531,0.7877632886374919,3.0918327920962225,3.789322746113152,0.17102498166181113,1.9924845267983142,4.8136175898228535,-1.2724841471385884,-0.8543248180102839,-1.5616271157252934,2.0658335820815177,-1.523441079138138,0.45465618397173924,4.011118639475844,-3.262638897991138,0.4583268086873308,-0.6392581684937609,1.574899888635283,-0.499541504053351,2.992174898681087,0.4337777330898857,3.7398632363033584,-4.6446710036709895],"bias":-0.9522241825071114},{"weights":[4.165327868102056,4.33802062356298,3.8133513207276386,-1.984068377804337,-0.27033292724138475,-1.6983250340867635,-0.24914467449871874,2.7376544866575756,1.4268387619793965,-0.4984106425420528,-1.5826361982134305,-1.8238254658724142,0.004813295283825853,-2.6592599018064567,-2.351603807795327,-5.653895583521154,2.143250064419728,3.2409626254442183,1.5292712648836948,0.1698145888681839,-1.5367270868462186,1.5262097177513378,1.313860266723752,4.333337975885929,4.291101967445356,-4.8373581832599255,0.412485081397448,-0.28867458000429136,-1.0277906088417221,1.2674998160791282,-0.07590966720483479,-1.824887799432201,3.410343444600604,2.346026223519278,1.6119628685942182,3.138362497997818],"bias":6.843574028015582},{"weights":[2.2226374866759624,3.6875878639875452,1.5227510587977469,-1.0366744315305048,2.249637084062664,3.736168897592838,-1.0765655973044959,0.22790385928633974,-5.621137576068911,4.527243146803886,-1.6736838090635469,-0.043134362060486556,3.104568669312355,2.2239952475983142,-0.9113583368173158,-1.0941982751493267,-2.6999771894996503,0.39356216164958946,0.1483503210896665,-1.059178846660526,0.612208744305941,2.434306162444159,-0.6189267255736228,-0.5914400590394974,4.743841313376566,-2.927939446409233,-3.845054393560852,-2.958276959864241,0.015485665435190534,2.631684068949191,1.0692362012679766,-4.713991736443831,4.251242409953055,-1.0686056945392823,-2.93700601579702,-2.312560967116457],"bias":-4.587759097878963},{"weights":[0.3866115681298697,4.370969541256418,-2.5073341144792547,0.7353668626735373,2.73748143647568,1.4039361820090048,-6.606073469318785,4.560920880827814,3.4420052297880717,-4.371272717782387,-0.6506568131738055,4.510288267034822,2.871440046712882,-1.4227656909428152,3.64416908378872,-0.4841763474123841,-0.8742160393686556,3.305085623742704,-0.9215221599122319,0.5113628659658325,0.43229604095127655,-1.296003384711831,-0.28489611017617167,4.701296539589646,0.36020989987457375,4.126281784462282,-2.3400767038701273,2.1638213181261703,1.3202923581758546,-2.209323685117043,5.432544574845274,2.335126719272865,-3.798908804791433,-0.856115729628728,3.2372111597999655,-1.5107929467181527],"bias":6.606976435291453},{"weights":[-1.2277016813327675,0.022281254539082012,-2.0290777829090207,1.0126832394651106,-0.1406958302350173,2.317301714960543,2.3048771247877884,1.7574784980882283,-1.1684648915346287,1.8863289505831142,3.2973095351506974,2.8496156564733957,2.542590278121327,0.23058129325249918,3.2248741971067303,-3.500080483927138,-1.5299192293110608,-2.7042350401392263,0.660535833659606,-1.4282769255295291,1.2082639507610229,-1.4490783456673015,-4.125345253283482,2.0654179345485453,3.7060195575316093,0.34440114628045415,2.3505252471804816,3.7681468366800686,3.5157225236628955,2.6024613098734526,1.4661682930223485,-3.5101578382175633,0.5818236865547732,3.692484245692624,-2.0344822152008963,1.325687178688205],"bias":10.403686322536789},{"weights":[0.5398897877995353,0.34743679573538866,1.2460436165833984,-3.6930935128807962,-1.9381063551834041,4.246807203888669,1.0086355417079378,-4.352809600418499,-6.0481205665272455,4.570252583711185,-1.7529386407911756,3.818848828279194,-1.137447160805335,0.13606163976275412,-4.689240003726298,-2.8078898517471056,1.9316654544443757,2.46964098472034,0.43039508723235614,-1.4633911860864588,2.9139100520526005,3.5355900416569046,-0.7968096979987526,-1.9185432567145362,-1.0128211985031403,3.4080151145818323,2.7038659598377097,-2.4234231971500524,-0.46764771888899376,-3.385370592799759,-1.691865902280001,5.554660012881555,3.0028113640196934,-2.7514632855257033,3.7795848154301366,-1.8986459232754624],"bias":7.204276525770152},{"weights":[-2.3603825491043224,3.462459904160298,-2.324235873343953,1.4372804602903433,-4.482490776153217,0.6022467503664369,0.9954742611358651,2.849572858314086,-3.988685760350445,-7.0770162381406205,-2.532892656617575,-2.513210067411298,-4.580828263857579,-0.08728406971512959,2.0954728601944295,5.538939200071155,-0.42561683120565963,2.9110081058342865,3.7908082347997696,-0.793753556404097,-1.8054990376470885,3.82305658471403,1.5995927406508295,-2.9204322177504194,-0.08871853335599497,0.2230955845900211,0.22761035566642643,-2.385856813926316,2.048958428354505,-4.142675538248258,-1.6564092327383415,1.1836964039391642,1.8461099995343897,2.175900640372975,-6.000997645097247,-3.796091356029874],"bias":-5.4538278363391495},{"weights":[4.712534194738973,4.31571551094327,-1.7986911524651985,-2.755348170343285,1.704762149021548,-0.19164968262749402,-1.7289265323454952,4.820943728590097,-4.549959060314981,1.6806232550354123,3.4429572190262268,2.698485474442314,-4.7682365925992745,-2.5100221162370135,-0.7640985402413668,-4.779549023313033,0.7248906518590654,-3.7346438351620974,6.019197596806948,-1.0280331412732469,2.2280250641815615,-3.928881925858343,-0.6591386225762782,0.9375920862711942,0.3361879927473215,-3.385425890929439,-2.052159697615836,1.9755564506595413,2.753518791742098,0.22960391610473366,3.201325321345898,-4.305360989376852,-3.3269713678151906,3.985199445961793,-2.933873392580267,2.579898033684662],"bias":-0.5890632077419741},{"weights":[0.7391693484276705,-3.2726014324274355,0.704720984340385,0.4220010804594027,-2.2008216397902123,-4.11082723812168,-3.5289411281022893,3.0699642940813225,-7.0252637658319665,-2.4934577722056455,-1.6331023857797973,1.5244360652076283,5.9757324331317845,4.975067607740994,0.7783660498690705,0.2766251062360433,0.7804388118000859,-0.06662552063891737,3.5818342072217897,-0.592141928238157,-2.7844736632165645,4.236904583352177,-0.2302874836994264,1.4492123028152963,2.0813139768047497,0.2772975088289164,-4.841693006266746,-1.0212704500556735,-3.330666418578612,3.6009633612146392,1.1522229217683315,4.151135655365087,3.1448502954794337,-0.7531906828060867,1.9193686419925808,1.6464241099648054],"bias":-5.224329438894888},{"weights":[-0.4262882226624527,-1.469394748229817,4.5224949911898475,1.4462660252135786,5.355486748517701,2.3138697739798273,0.6213677485903033,4.851736195839823,3.413408632656418,-0.11668892446979394,0.822940301141938,3.126084657747404,3.4239412112161838,-3.052201450757965,-0.12375724065801766,0.7273291719087509,-1.7340640812311998,4.765491090077428,-1.6384790883824008,1.2899098039407628,-2.313971275974051,-4.774308797303545,3.50184687136349,0.5535760895196269,-4.5857010445626845,-2.4280844173283183,-2.0600978165079646,-3.958185647118229,-1.6786832210473563,2.065254876690005,2.8152786616890784,7.976428741570599,1.4539394123040053,1.985510826868332,3.6531904444273655,-0.7181783651384721],"bias":4.3976047922004895},{"weights":[-1.6407049167893366,-3.2425911155374956,-0.457080113640394,-4.024546863183506,0.599493112323925,-1.15309931287535,0.33081003169093576,-0.8529620303191938,2.2575406394833903,-0.07953559569701234,-4.497806616920295,1.3289747577555824,3.567958861557734,-1.5767430874643384,0.7494560006577775,1.9108497952816128,5.331714253333586,-2.6613212917990516,5.090689388895562,2.937151268965282,1.1539229364559225,3.2919580067672607,-0.10402586508647467,-4.3544327852824205,3.5922288479083035,-0.8989287922522429,1.0675711149234206,-3.3336600746268843,-1.4431453032424646,2.5779232804014813,4.8579593704199615,-1.1232943277611669,3.826476977945591,-2.4384880367901474,3.0034358891793485,-2.2887095925843557],"bias":-5.9406713738842125},{"weights":[1.2776897206213838,0.7063541258649786,0.3185062501715198,-1.7155005970842154,-2.757954331242028,-0.6400672015903773,7.52303503093486,-0.8862797164311639,-2.6122853609671335,-2.0359615477551007,-0.898030215124227,1.1737621765334452,-1.4496660063890563,-1.8839926422420021,3.969740816739259,-1.2945772661009056,-1.2276608084868856,1.267121681775674,-1.677280966835607,0.7295095816857341,-2.9253674613324687,1.9380073156836866,1.9885073326725577,-1.6095989601525769,0.49741610300748307,3.6111023634592785,3.981873538140966,4.234625415246206,3.169826939424779,-2.2655937923607445,2.270660445184733,4.629511357765287,2.5520180805581374,1.9138754558879612,1.1026365334558494,1.160158197705934],"bias":6.2926245109552825},{"weights":[4.48788031112625,0.8877168811407589,8.847130568053464,-3.6836328830180105,-0.35132171589765554,2.4092690189750052,0.8422227991577879,-4.844307707608607,0.4545707089129461,2.7171164262407466,-0.17975070835251636,-3.6647711778546,-1.2021983755027577,3.2021979147656485,0.026925792398222702,-0.6308175470088819,-4.557116474870378,0.28118275249225544,1.9141011375936658,-1.5875813368559195,-3.981248185758299,-1.8693183361170735,-1.7811634999175974,-1.4760934680173101,-2.8179354557422616,2.195874131457563,0.23289187230463096,-3.53938111106281,4.449350176097306,2.1560192494103214,0.3859361492842937,4.628990270200138,0.5056657708319685,0.1641939656150688,0.6848100529731621,-0.20783675882393315],"bias":-4.392596484237411},{"weights":[0.11606851612800186,-4.9271636547649456,2.806331248444319,1.6541847368808849,5.55307027996806,-6.9975861807152695,1.7953041349210768,-1.8347871859573186,0.3101689103986137,0.5553961473174173,1.0708716905592175,-3.474467112804979,-2.2104209821050453,4.760516302340034,-0.7422288745508449,-1.352134976490541,-4.361905727533107,-2.2012450159670354,-0.9594331339002191,-2.2573008860406047,-2.7504306714949354,1.273308239285798,1.6611981712508723,-0.17671210972055285,-6.278308664734891,-5.346716414107331,0.40906593292527615,6.681187806141762,1.2348302756157603,4.291657352447522,0.20394356883787945,2.4423488790426133,-5.160756351064127,1.0620994649955,3.641369902294142,2.381240962372518],"bias":-3.484236417931982},{"weights":[5.12075149995135,2.2602097795350233,-1.9017017274050416,2.884643959312717,-3.2515991404944926,2.4980226345888967,1.9601473335329915,2.135104082711876,-1.5911253293070837,5.723428783376758,-2.2090842797977435,-0.4034333727003118,-0.8454614791024496,-4.116068648642111,-4.5832975617991405,2.904648753366445,-1.0885813201645607,1.7897847253752996,-0.41974444559054436,0.1633241648626971,-2.1664251016329503,-5.082160111754027,-0.6562574850116553,2.1850955141951136,1.8016488896137248,-0.1534757330750757,5.9988387750587036,-3.24698982129588,5.321164953059199,-0.6293281315426036,1.4571310147268202,2.7525978294785025,-2.5923991272886395,2.750700622022569,3.488544658705046,-1.1046218109578714],"bias":5.104840720445491}],[{"weights":[8.892478310722437,2.971791844833369,-4.1954147050015616,-4.064042360917314,-6.9819521034007375,-2.011685899752733,6.681384488545961,-6.266449772783982,2.742394850225641,-0.8426772501788987,-4.45003095089092,-1.353337394019006,-4.636023974539994,-9.504281613272253,-4.475742674862084,-1.9794205489215373],"bias":-0.13530565596203364},{"weights":[-5.0926343907553555,-5.393385421950677,4.400519074935115,-1.574201975788598,-2.6315956266880374,-0.767943132768123,-1.2032132940388736,-6.659128085552608,0.3440265524341168,12.243154334381368,-3.5289464372987656,-7.445824213686958,-3.7882284462678695,2.6680246916827484,8.813741197126289,3.613768143819307],"bias":-0.1577242318484666},{"weights":[-0.19536070846468415,0.35751596243997263,-13.459737671694297,-9.303575865631588,-5.133133087845197,-4.261683414357167,9.744668886752466,1.9589860989040389,2.7763540945654936,-1.5787838064596902,8.667780357258701,2.8820456292676435,1.9947152889691202,-7.124723264609236,9.770034227203181,-7.265936544634403],"bias":2.801648446639343},{"weights":[6.495277063714705,-6.878889281370768,0.016358236439665223,-5.482658675539581,-3.6507771871370593,1.739769497020175,3.734092928134007,3.2453545207575796,-1.5006008736074408,2.4004686276185154,5.3751443446467775,-2.6990912245254037,-9.451496519931991,-6.225396805947777,-7.535476677916441,3.5379195930838927],"bias":-6.677263538728034},{"weights":[2.751850342473298,5.969285988835836,-3.576614329050871,4.638108025735837,-2.2344778163122685,-4.430910361114177,-7.9387509746151705,7.354812517818995,6.101500900615401,-6.965922583169432,10.981463247291824,2.711834380932341,-1.4471642604177704,1.6504556254305616,-0.34574056580052004,-1.4822602813723336],"bias":-1.234065175351705},{"weights":[-4.999143300262478,7.290869616333649,-4.727167936106947,3.499439564995857,2.936568135546185,-6.030266917541847,2.9827585564964165,10.33866298219578,3.0985198015751796,-1.6114490882284473,-3.8613149954481063,6.340876400299849,-5.333928938995731,-5.752314769874949,0.9614809628363888,-4.730636070018217],"bias":3.4837747647123853},{"weights":[-0.2790264219167321,-5.704649433683517,-4.20600198986269,6.565340729571136,9.726537521208083,-2.7829224861280295,2.7687350182610637,0.3615222201858149,2.009694265317651,-1.4787428249062333,3.429878183273083,1.2828380813956075,-9.487491917461503,6.0887010857817065,-2.2258339050815406,-7.157270785029244],"bias":-6.654098097383732},{"weights":[-3.760247044174488,1.5556548111738835,2.5772552605282684,2.4963093414765103,-7.899161887115471,-9.114702771407087,3.4039967443452563,-8.217269901583954,-6.937495229063746,-3.0837085742648145,-6.537947420245562,8.346992476529424,-7.988686918090167,9.437376955811477,-2.407525534628058,-0.6579578824288229],"bias":4.077034129987897},{"weights":[0.8292178173123522,-2.7287478001474947,-14.173347732787283,4.902571724923928,-5.5430204796964135,-8.652200246986874,2.945923905101936,10.171307529174532,3.7198531318852894,8.907914046650362,-3.389318086730191,-2.1433669917738105,-6.3293832775955154,1.419993707439588,5.782964955189636,1.637219942223039],"bias":3.506123668936521},{"weights":[4.338223710200708,-1.3161632987420253,-5.505244579749304,-7.138949740935656,2.405145244838099,-3.804507397178213,6.807702352574531,9.974816164096609,-3.4713629078963377,8.535711318188907,-8.423454571560477,-9.810770208325756,-4.886836564096735,8.619918289854887,3.8007677147172565,-11.99697407727284],"bias":1.4725488816655787},{"weights":[-7.985690221047436,-1.0141809784559088,2.666569468275917,-4.0440125856813545,-4.113918963406788,-9.177417376231256,-6.685588370586099,8.515497492490612,-1.332886702602055,1.7512217882178638,-10.331750508804046,10.756645046380813,-5.430590319927206,7.075899474621305,-6.229197220430659,3.0207414424186148],"bias":6.829561917679026},{"weights":[1.5285354731583214,-2.447419556406975,-1.1228259216871979,-5.8807436125989545,-9.61379765892941,-8.72206331644417,-2.9178689178127315,6.497733587518522,-6.518850913498247,-0.3377735091168566,-7.145987774491554,-5.312203146052679,-3.802831489231978,5.054834165095687,-0.6806715321706015,-0.8545058039810838],"bias":2.1257884423649314},{"weights":[-4.669505051047635,-2.443224014735051,-5.136800088891713,1.6485184860992064,-6.540429531288252,3.5677766806282203,0.6738229449460983,0.8854939655113292,6.749895945295168,-8.244985241172186,-9.510868568930997,4.309429268959004,-2.7503565678910484,3.514666115999266,3.390296404028456,-4.611296372413606],"bias":0.8134374439637726},{"weights":[11.483363194812428,-9.022306938728624,1.0040042695855218,-0.22518726543156528,0.3138343240087422,-5.105932377819471,-6.906594619376283,6.419390357946348,-2.483544763974089,-8.88540313356247,-6.565815633698366,2.5224635771562385,-6.086773592393157,-0.024528180560771676,9.359981516260394,-5.311686864366251],"bias":7.977334483980203},{"weights":[-9.454482332283964,4.065497642607208,3.175572239577043,3.830530619974882,-12.133449596078188,-12.920054416717132,0.7159936336779218,5.120501499091833,1.8039762806077313,-2.799591062451933,-5.17980846624237,-0.8854989991230793,-8.01092522929704,-5.624299433673741,-2.9422491745675674,-4.5959421627148656],"bias":2.8857585116013125},{"weights":[0.43856790309782234,10.424158746694083,-6.458423319671599,0.5225382457751018,-10.206334712241443,3.885180113324414,-1.5811709179710252,-2.1028634235389254,5.1044004208236835,-1.474943672881181,3.8966461857203814,13.550027464072858,-6.2972665942784465,9.529669383522991,1.5285911233534333,-8.990190568181864],"bias":9.605865834529634},{"weights":[-5.650726652769559,-1.1238429502041096,-12.409014347702037,-2.2406315008405477,2.4382445911237993,-0.03547563760839811,-8.54820265950309,1.1559637731524735,-7.18225225027932,8.197481857533422,-0.8640382365745097,3.8439124523949975,-11.228802890692393,0.7023832034412303,5.127745886896161,4.511416734069363],"bias":4.438535722919954},{"weights":[3.158711167666042,0.8029760652345946,-1.0521180228865303,-5.067188643984843,-6.09067349535478,0.3765442781661004,-1.7480233139264478,-6.947916768682478,3.604049766609221,4.796632141137426,-8.661972417907696,5.443489136732037,-5.039759089867174,2.3512254650905837,-4.752369624445318,-8.547755013942343],"bias":3.907205585437647},{"weights":[-10.729116283213724,5.580813273972989,-8.211101490554812,-4.626388745384682,-0.5457079410086425,-11.631669241883834,6.6706724396219075,-3.0520245066203517,6.073643815463189,-7.12139627036226,3.180376988901721,-5.143868539255366,3.0029199242536144,-0.655033163385216,-5.95067153244174,-1.1538142284974424],"bias":-4.400139069351004},{"weights":[-3.0923007835010203,4.31425060667818,-1.1714048155960317,-5.591999810945898,3.413050106069363,-12.810593040565626,2.678555988778908,-3.41173289720951,3.5067320953605976,2.3478116285701116,-7.335302148400669,0.036112355420505594,-5.645879263427122,8.203522365113647,6.750054989890157,-10.917509348173356],"bias":3.917398609996648},{"weights":[7.214983846868178,7.073159509710459,-5.822552802679732,0.18640072587042725,-2.134481316318715,-3.277648974147834,-11.713866028550383,1.1813866897228025,2.254649953883751,3.849036375953976,-4.2079178512147575,5.667913048171147,-11.919349362206205,14.012690696721796,-3.5813561654605692,0.38186755661313104],"bias":4.4132557924105},{"weights":[-6.286577010277707,10.8423543634613,-11.16897730413385,-5.122821730961549,-0.24505255229650444,-3.550226792384407,-7.533661202540913,4.109017006900039,0.22685087300669501,10.7049918518338,7.273396361773413,-3.421447663867167,-1.0043788731046162,9.241365845446792,5.91397240459398,-5.773474889390754],"bias":6.787806490947633},{"weights":[-0.5151095722415049,-0.6206761933120726,-10.07504466018215,-5.025506668490543,-6.883046635072184,-8.982504717683154,2.967364897436156,-9.25967322840878,0.10972196240046178,0.22364380502798994,5.79599130999058,6.28310594175539,-7.325610184310676,-1.9939835004358546,9.161801530602963,8.374656734376288],"bias":2.1651619942044937},{"weights":[3.951785331968096,5.339812735556715,-4.134048168759869,-6.492510328845041,-10.764375332788797,-0.9814345558579244,-6.213921982461823,3.4634393122898612,4.3832417214778605,-1.9510857330832116,2.5401595444706957,4.964242375907001,-3.271673765775923,-9.105904583641145,5.710069823924422,2.842217987312789],"bias":-3.2991979125457527},{"weights":[-3.5730485473915388,0.263521046182873,3.225083270965671,-1.9606336846783214,-3.950420006287889,2.3976340871443105,4.143591169887437,7.631534887295595,4.412165403045558,-6.724965162421508,-5.3343590123379885,-6.305073407786797,-6.007593723190547,1.0219784849106017,-4.620149685761053,-7.230973246056848],"bias":-3.424667539590794},{"weights":[-8.436218539552895,-3.534965795534688,4.47392802999727,4.825668248505699,-3.101333635946842,-7.01588066231505,-6.967192636716475,4.057349311234985,-2.328405421563352,3.635749201789045,-4.511548087089247,3.025223154189997,-10.072584591067276,-4.70662534688774,9.390663944500925,-1.3749609105851508],"bias":-3.497668356813851},{"weights":[-6.206835731197046,-8.792949889401962,0.2180769211205891,6.450756622860356,3.182234370590054,-5.152416564575965,-4.614722435414044,-3.838551133281174,2.143222934819831,0.4613512964051166,-9.754714263547628,6.363415414268526,-4.22895588816212,-1.5110315529634513,-1.0638071961144298,-12.82013006798301],"bias":4.545814498405573},{"weights":[-2.5221533191088,4.9152799759197,-5.064604110973534,6.255256107157975,-9.572874339517988,7.853302328056972,-3.460760421724248,-4.4051227978262055,0.19143795558275206,3.064796067196587,-3.6296245414747337,2.5483714689185377,-11.487128335953678,2.6823822516166382,8.170908834117634,9.126850156952603],"bias":1.1855884786114081},{"weights":[-2.1636084067294243,-1.6793135908267773,3.5318494463066563,2.3753398879906165,-7.988585263225056,-7.41787223787208,-6.423579910705459,-3.4683942916591106,2.74391175506629,5.049049003094519,-3.8732763260311125,2.5886016931270723,-7.246985495901364,-4.569384874455124,0.23446880367773426,-10.68606764266798],"bias":-2.6327408959995173},{"weights":[-5.587626370167985,-3.850417819637664,1.4029180079112549,2.1792184332410076,3.822590911124549,-6.756695357452333,-1.3032541432738451,9.441264562131426,-6.585027309372614,-4.149854249996925,0.17998265648136233,6.318239338230352,1.3802515558735855,8.100077072085774,-4.717557507968875,6.952446864295526],"bias":0.6307190170956134},{"weights":[1.3262401771595393,-2.893564881433571,-0.26188019270348506,-3.515899816270147,-9.546741579398446,-3.92092565485864,0.05125284575699773,7.520751598606919,-3.1377885900059166,-6.1254297431682225,-4.260233241241968,-3.904114288295782,-1.3581923814527275,4.3741108730736995,-8.845131447875728,3.4279277869696663],"bias":2.2650606659651014},{"weights":[6.945311109358204,-0.08678049297556299,6.495152675615355,0.47146348606129423,-8.876793191551982,-4.78941996746316,-3.3699873103197664,-1.6682741999346153,6.163452998409448,-8.467033559463891,-5.107070307605085,-3.354688148256266,-7.662994218233138,1.0032664395147664,2.095948632278361,-5.212424769066851],"bias":1.0830733783114825},{"weights":[1.9669989364792,-1.2645370035436692,-10.734396649802513,-4.686716232511331,4.306754327735165,-0.9153396606248564,-4.695363212975231,-3.019830230335327,8.423797508710573,-5.768540171553745,2.565156395521033,-0.6020645105966086,-2.611654225889588,-1.9503302619573009,3.600464387450337,-8.915891601443189],"bias":-1.1924906913618498},{"weights":[-9.463429187439948,3.3273738442964067,-7.665178907409465,13.568838945999445,-4.593137872438909,-3.358736886699331,-0.033419936428037054,-8.90557464599687,-2.6924510357713656,-2.339556079129031,0.6028959877363773,-3.4832718835645373,-4.305605091953041,2.9296687759212814,4.678140641899582,-0.751212837631803],"bias":1.4940444649314069},{"weights":[-6.120322755446489,-2.967033267008928,-2.299017898123376,-4.873110304678872,3.051070201344696,-4.856267345703655,-4.218599037592071,6.4814658000683645,4.334384792744053,7.516459999438311,-1.1606457775659624,-2.0597911419370534,-3.08037514042725,-3.4990353152416724,-8.625639721195423,-0.20163106182097879],"bias":-3.9694202825046965},{"weights":[-11.19847152352698,1.9904576193329673,-1.8126215697469525,-2.7327435880142605,2.356862312938731,6.9211625255903035,-4.7952760508249614,0.11542925571504924,-4.826027048424195,3.8660111366733614,5.404855880987933,-2.66771123252437,-1.8130233002594365,3.836507279550199,-4.713480334025224,-3.5160219154853407],"bias":-2.377021730763475}]]}